{"learner":{"attributes":{"scikit_learn":"{\"_estimator_type\": \"classifier\"}"},"feature_names":["Pregnancies","Glucose","BloodPressure","SkinThickness","Insulin","BMI","DiabetesPedigreeFunction","Age"],"feature_types":["int","int","int","int","int","float","float","int"],"gradient_booster":{"model":{"gbtree_model_param":{"num_parallel_tree":"1","num_trees":"5"},"iteration_indptr":[0,1,2,3,4,5],"tree_info":[0,0,0,0,0],"trees":[{"base_weights":[-1.9288715E-2,-6.9210315E-1,1.1267483E0,-1.1564385E0,-9.269857E-2,-1.5559457E-1,1.591034E0,-4.33992E-1,-7.53216E-1,-1.2044892E0,1.9400592E-1,-8.1871414E-1,6.258613E-1,1.0763198E0,2.156338E0,3.1668663E-1,-8.6924416E-1,3.2631274E-2,-4.1367188E-1,-6.955065E-1,6.186545E-1,-9.9955815E-1,-1.7717933E-2,-1.4175408E-1,8.8526994E-1,4.2899993E-1,1.5157869E0,2.2504911E0,1.7613837E-1,-1.5227048E-2,1.7265272E-1,-1.1506915E0,-3.3649537E-1,-9.543117E-1,3.1668663E-1,-5.9000427E-1,8.944966E-1,-4.6378586E-1,-3.732198E-1,2.4067095E-1,4.9917746E-1,1.2695061E0,-5.369078E-1,6.9004315E-1,2.0015974E0,6.959695E-1,1.7265272E-1,-3.9381102E-1,1.1129999E-1,7.220129E-2,-2.3765564E-1,-3.3595908E-1,-9.946575E-2,-1.0739017E-1,2.3782703E-1,-3.1216738E-1,-1.92962E-2,3.112715E-1,-1.1586774E-1,-2.854817E-1,6.073336E-2,2.767315E-1,-1.4008068E-1,5.9050006E-1,1.5114027E-1,-3.0755737E-1,1.7613837E-1,-1.4175408E-1,3.098689E-1,6.385139E-1,1.7265272E-1],"categories":[],"categories_nodes":[],"categories_segments":[],"categories_sizes":[],"default_left":[0,0,0,0,0,0,0,0,0,0,0,0,0,0,0,0,0,0,0,0,0,0,0,0,0,0,0,0,0,0,0,0,0,0,0,0,0,0,0,0,0,0,0,0,0,0,0,0,0,0,0,0,0,0,0,0,0,0,0,0,0,0,0,0,0,0,0,0,0,0,0],"id":0,"left_children":[1,3,5,7,9,11,13,-1,15,17,19,21,23,25,27,29,31,-1,-1,33,35,37,-1,-1,39,41,43,45,-1,-1,-1,47,49,51,53,55,57,59,-1,61,-1,63,65,67,69,-1,-1,-1,-1,-1,-1,-1,-1,-1,-1,-1,-1,-1,-1,-1,-1,-1,-1,-1,-1,-1,-1,-1,-1,-1,-1],"loss_changes":[1.368679E2,3.1016548E1,3.934404E1,6.2735825E0,1.6139647E1,1.0029866E1,1.1733131E1,0E0,3.8033886E0,2.5249958E0,1.5740249E1,1.3654122E0,2.9819994E0,7.109703E0,1.9324112E0,3.6336002E-1,3.4973335E0,0E0,0E0,3.8564553E0,9.8508215E0,5.1192E-1,0E0,0E0,3.4275193E0,1.0769095E1,4.9782715E0,1.039177E0,0E0,0E0,0E0,4.5642548E0,2.917727E0,7.683878E-1,1.4122763E0,1.3064661E0,4.645487E0,1.5573499E0,0E0,3.0076344E0,0E0,2.7225323E0,4.160725E0,3.4368627E0,4.8453522E-1,0E0,0E0,0E0,0E0,0E0,0E0,0E0,0E0,0E0,0E0,0E0,0E0,0E0,0E0,0E0,0E0,0E0,0E0,0E0,0E0,0E0,0E0,0E0,0E0,0E0,0E0],"parents":[2147483647,0,0,1,1,2,2,3,3,4,4,5,5,6,6,8,8,9,9,10,10,11,11,12,12,13,13,14,14,15,15,16,16,19,19,20,20,21,21,24,24,25,25,26,26,27,27,31,31,32,32,33,33,34,34,35,35,36,36,37,37,39,39,41,41,42,42,43,43,44,44],"right_children":[2,4,6,8,10,12,14,-1,16,18,20,22,24,26,28,30,32,-1,-1,34,36,38,-1,-1,40,42,44,46,-1,-1,-1,48,50,52,54,56,58,60,-1,62,-1,64,66,68,70,-1,-1,-1,-1,-1,-1,-1,-1,-1,-1,-1,-1,-1,-1,-1,-1,-1,-1,-1,-1,-1,-1,-1,-1,-1,-1],"split_conditions":[1.28E2,2.9E1,3E1,3.1E1,2.63E1,1.46E2,1.58E2,-4.33992E-1,5.4E1,2.1E1,1E2,2.81E1,2.8E1,3.1E1,4.58E1,5E1,5.01E-1,3.2631274E-2,-4.1367188E-1,7.11E-1,1.98E-1,7.4E1,-1.7717933E-2,-1.4175408E-1,1.4E1,7.4E1,4.22E-1,1.282E0,1.7613837E-1,-1.5227048E-2,1.7265272E-1,8.4E1,7E1,9.3E1,6E0,6E0,5.3E1,3E0,-3.732198E-1,2.44E-1,4.9917746E-1,6.1E1,8.6E1,3.25E1,2.72E2,6.959695E-1,1.7265272E-1,-3.9381102E-1,1.1129999E-1,7.220129E-2,-2.3765564E-1,-3.3595908E-1,-9.946575E-2,-1.0739017E-1,2.3782703E-1,-3.1216738E-1,-1.92962E-2,3.112715E-1,-1.1586774E-1,-2.854817E-1,6.073336E-2,2.767315E-1,-1.4008068E-1,5.9050006E-1,1.5114027E-1,-3.0755737E-1,1.7613837E-1,-1.4175408E-1,3.098689E-1,6.385139E-1,1.7265272E-1],"split_indices":[1,7,5,5,5,1,1,0,2,5,1,5,7,7,5,2,6,0,0,6,6,2,0,0,4,2,6,6,0,0,0,2,2,1,0,0,7,0,0,6,0,2,2,5,4,0,0,0,0,0,0,0,0,0,0,0,0,0,0,0,0,0,0,0,0,0,0,0,0,0,0],"split_type":[0,0,0,0,0,0,0,0,0,0,0,0,0,0,0,0,0,0,0,0,0,0,0,0,0,0,0,0,0,0,0,0,0,0,0,0,0,0,0,0,0,0,0,0,0,0,0,0,0,0,0,0,0,0,0,0,0,0,0,0,0,0,0,0,0,0,0,0,0,0,0],"sum_hessian":[1.7549245E2,1.1082531E2,6.466714E1,6.1925068E1,4.8900238E1,1.736644E1,4.7300697E1,3.4504375E1,2.7420694E1,9.368737E0,3.95315E1,9.368737E0,7.9977026E0,2.6278166E1,2.1022533E1,2.5135636E0,2.4907131E1,1.142529E0,8.226209E0,1.2567819E1,2.6963684E1,7.3121853E0,2.0565522E0,1.3710347E0,6.626668E0,1.1425289E1,1.4852877E1,1.9422993E1,1.5995405E0,1.3710347E0,1.142529E0,1.5538394E1,9.368737E0,1.0054255E1,2.5135636E0,4.7986217E0,2.2165062E1,3.199081E0,4.1131043E0,4.34161E0,2.285058E0,5.9411507E0,5.484139E0,6.398162E0,8.454714E0,1.8280464E1,1.142529E0,1.4167359E1,1.3710347E0,4.34161E0,5.0271273E0,7.3121853E0,2.7420695E0,1.142529E0,1.3710347E0,2.0565522E0,2.7420695E0,2.010851E1,2.0565522E0,1.5995405E0,1.5995405E0,2.0565522E0,2.285058E0,2.285058E0,3.6560926E0,3.8845985E0,1.5995405E0,1.3710347E0,5.0271273E0,7.3121853E0,1.142529E0],"tree_param":{"num_deleted":"0","num_feature":"8","num_nodes":"71","size_leaf_vector":"1"}},{"base_weights":[-3.0547215E-2,-5.6056064E-1,7.749038E-1,-9.6017087E-1,-9.669689E-2,-1.3061942E-1,1.0760696E0,-1.2429E0,-5.9848326E-1,-1.0204792E0,1.1358834E-1,-6.8868256E-1,4.730979E-1,5.3477764E-1,1.3009529E0,-3.8171783E-1,-1.0594308E-1,1.5940547E-1,-7.263082E-1,2.7250234E-2,-3.5748506E-1,-1.8561493E-1,8.895519E-1,-8.540563E-1,-1.4201098E-2,-1.20851405E-1,6.700752E-1,-2.8013283E-1,7.096782E-1,1.4075594E0,2.1831295E-1,-2.814151E-1,3.7794355E-1,-8.207842E-1,1.668463E-1,-5.39588E-1,3.6082712E-1,1.857373E-2,1.2754619E0,-3.954158E-1,-3.2265568E-1,9.5757425E-1,-7.93215E-2,1.8965213E-1,1.0885059E0,4.3112338E-1,1.0838979E-1,-1.8730381E-1,2.860172E-1,-2.651525E-1,5.756326E-2,1.6605206E-1,-1.9252957E-1,2.3104337E-1,-1.1599013E-1,2.8687716E-1,-3.063093E-1,1.5210117E-1,5.1899797E-1,-2.501192E-1,4.891032E-2,4.0575394E-1,3.831588E-2,3.5363275E-1,-5.2577414E-2,1.4922115E-1,3.8592485E-1],"categories":[],"categories_nodes":[],"categories_segments":[],"categories_sizes":[],"default_left":[0,0,0,0,0,0,0,0,0,0,0,0,0,0,0,0,0,0,0,0,0,0,0,0,0,0,0,0,0,0,0,0,0,0,0,0,0,0,0,0,0,0,0,0,0,0,0,0,0,0,0,0,0,0,0,0,0,0,0,0,0,0,0,0,0,0,0],"id":1,"left_children":[1,3,5,7,9,11,13,15,17,19,21,23,25,27,29,-1,-1,31,33,-1,-1,35,37,39,-1,-1,41,-1,43,45,47,-1,-1,49,-1,51,53,55,57,59,-1,61,-1,63,65,-1,-1,-1,-1,-1,-1,-1,-1,-1,-1,-1,-1,-1,-1,-1,-1,-1,-1,-1,-1,-1,-1],"loss_changes":[7.315568E1,1.9059212E1,1.869225E1,4.920582E0,9.620609E0,6.346382E0,5.5314484E0,3.4213257E-1,2.65701E0,1.8527756E0,9.62736E0,9.876547E-1,1.8532553E0,4.955478E0,3.7834816E0,0E0,0E0,6.743853E0,3.1978683E0,0E0,0E0,6.044131E0,3.8464928E0,3.5149145E-1,0E0,0E0,2.3668356E0,0E0,2.8476024E0,4.7162628E-1,3.2964125E0,0E0,0E0,1.5410366E0,0E0,2.4497867E0,4.1183786E0,5.4118843E0,1.9046974E0,1.1325774E0,0E0,1.8699794E0,0E0,3.001977E0,3.8468742E-1,0E0,0E0,0E0,0E0,0E0,0E0,0E0,0E0,0E0,0E0,0E0,0E0,0E0,0E0,0E0,0E0,0E0,0E0,0E0,0E0,0E0,0E0],"parents":[2147483647,0,0,1,1,2,2,3,3,4,4,5,5,6,6,7,7,8,8,9,9,10,10,11,11,12,12,13,13,14,14,17,17,18,18,21,21,22,22,23,23,26,26,28,28,29,29,30,30,33,33,35,35,36,36,37,37,38,38,39,39,41,41,43,43,44,44],"right_children":[2,4,6,8,10,12,14,16,18,20,22,24,26,28,30,-1,-1,32,34,-1,-1,36,38,40,-1,-1,42,-1,44,46,48,-1,-1,50,-1,52,54,56,58,60,-1,62,-1,64,66,-1,-1,-1,-1,-1,-1,-1,-1,-1,-1,-1,-1,-1,-1,-1,-1,-1,-1,-1,-1,-1,-1],"split_conditions":[1.28E2,2.9E1,3E1,3.1E1,2.63E1,1.46E2,3.05E-1,6E0,7E0,2.1E1,6.12E-1,2.81E1,2.8E1,1.3E2,3.3E2,-3.8171783E-1,-1.0594308E-1,1.08E2,8.93E-1,2.7250234E-2,-3.5748506E-1,1.12E2,3E0,7.4E1,-1.4201098E-2,-1.20851405E-1,5.4E1,-2.8013283E-1,3.43E1,1.441E0,1.66E2,-2.814151E-1,3.7794355E-1,4.5E1,1.668463E-1,2.76E1,3.47E1,8.81E-1,7.73E-1,3E0,-3.2265568E-1,2.85E1,-7.93215E-2,1.6E-1,3E0,4.3112338E-1,1.0838979E-1,-1.8730381E-1,2.860172E-1,-2.651525E-1,5.756326E-2,1.6605206E-1,-1.9252957E-1,2.3104337E-1,-1.1599013E-1,2.8687716E-1,-3.063093E-1,1.5210117E-1,5.1899797E-1,-2.501192E-1,4.891032E-2,4.0575394E-1,3.831588E-2,3.5363275E-1,-5.2577414E-2,1.4922115E-1,3.8592485E-1],"split_indices":[1,7,5,5,5,1,6,0,3,5,6,5,7,1,4,0,0,1,6,0,0,1,0,2,0,0,7,0,5,6,1,0,0,5,0,5,5,6,6,0,0,5,0,6,0,0,0,0,0,0,0,0,0,0,0,0,0,0,0,0,0,0,0,0,0,0,0],"split_type":[0,0,0,0,0,0,0,0,0,0,0,0,0,0,0,0,0,0,0,0,0,0,0,0,0,0,0,0,0,0,0,0,0,0,0,0,0,0,0,0,0,0,0,0,0,0,0,0,0,0,0,0,0,0,0,0,0,0,0,0,0,0,0,0,0,0,0],"sum_hessian":[1.6934747E2,1.02320946E2,6.702653E1,5.4392685E1,4.7928257E1,1.6869833E1,5.0156693E1,2.916117E1,2.5231514E1,8.172715E0,3.9755543E1,8.693248E0,8.176585E0,1.5713201E1,3.4443493E1,2.7809328E1,1.3518423E0,3.6057212E0,2.1625793E1,1.1532317E0,7.0194836E0,2.924123E1,1.0514313E1,6.647498E0,2.0457492E0,1.3092777E0,6.867308E0,1.2104815E0,1.4502719E1,3.1082691E1,3.360801E0,1.8791509E0,1.7265704E0,2.0477274E1,1.1485189E0,1.775347E1,1.14877615E1,3.550087E0,6.9642253E0,3.0716672E0,3.575831E0,5.232715E0,1.6345928E0,6.744714E0,7.7580047E0,2.986652E1,1.216171E0,1.6360028E0,1.7247982E0,1.9396673E1,1.0806015E0,1.1400511E0,1.6613417E1,7.4032927E0,4.084469E0,1.9086926E0,1.6413945E0,3.3745136E0,3.5897117E0,1.4447665E0,1.6269008E0,3.1186764E0,2.1140387E0,1.2166233E0,5.5280905E0,2.8272085E0,4.930796E0],"tree_param":{"num_deleted":"0","num_feature":"8","num_nodes":"67","size_leaf_vector":"1"}},{"base_weights":[-2.9419186E-2,-2.73707E-1,1.0368156E0,-1.052434E0,-7.5676695E-2,1.1243572E0,-2.8404852E-2,-6.119763E-2,-1.111462E0,-7.179579E-1,1.338837E-1,1.187577E0,-4.8196916E-2,-3.42116E-1,-8.15272E-2,-7.988461E-1,1.5293413E-1,-2.4217762E-1,4.730992E-1,8.230391E-1,1.3764417E0,-1.0369827E0,-2.745446E-1,3.019908E-1,-3.3566734E-1,2.2735675E-1,8.191228E-1,1.114845E0,7.9906374E-2,1.4529526E0,1.551477E-1,-3.5276902E-1,-7.41297E-2,-2.8526065E-1,3.9258458E-2,-1.22187145E-1,2.1647067E-1,1.00690454E-1,-2.0706488E-1,1.1920149E-1,4.0474254E-1,7.83246E-2,3.8669154E-1,-1.5002556E-1,2.652918E-1,4.744929E-1,1.7066917E-1],"categories":[],"categories_nodes":[],"categories_segments":[],"categories_sizes":[],"default_left":[0,0,0,0,0,0,0,0,0,0,0,0,0,0,0,0,0,0,0,0,0,0,0,0,0,0,0,0,0,0,0,0,0,0,0,0,0,0,0,0,0,0,0,0,0,0,0],"id":2,"left_children":[1,3,5,7,9,11,-1,-1,13,15,17,19,-1,-1,-1,21,-1,23,25,27,29,31,33,-1,35,37,39,41,43,45,-1,-1,-1,-1,-1,-1,-1,-1,-1,-1,-1,-1,-1,-1,-1,-1,-1],"loss_changes":[4.1794052E1,2.0037575E1,3.0697098E0,1.0939636E0,1.4239729E1,2.4528847E0,0E0,0E0,2.8346634E-1,2.9900875E0,1.0329187E1,7.0253754E-1,0E0,0E0,0E0,2.8104725E0,0E0,4.8486567E0,3.4223518E0,2.4231882E0,3.0533218E-1,1.5404472E0,2.6203203E0,0E0,3.0725021E0,2.8345873E0,3.3177433E0,8.886852E-1,2.4687748E0,7.1647835E-1,0E0,0E0,0E0,0E0,0E0,0E0,0E0,0E0,0E0,0E0,0E0,0E0,0E0,0E0,0E0,0E0,0E0],"parents":[2147483647,0,0,1,1,2,2,3,3,4,4,5,5,8,8,9,9,10,10,11,11,15,15,17,17,18,18,19,19,20,20,21,21,22,22,24,24,25,25,26,26,27,27,28,28,29,29],"right_children":[2,4,6,8,10,12,-1,-1,14,16,18,20,-1,-1,-1,22,-1,24,26,28,30,32,34,-1,36,38,40,42,44,46,-1,-1,-1,-1,-1,-1,-1,-1,-1,-1,-1,-1,-1,-1,-1,-1,-1],"split_conditions":[1.55E2,2.64E1,6E1,1.82E1,1E2,5.45E2,-2.8404852E-2,-6.119763E-2,5.9E1,1.27E2,3.1E1,3.42E-1,-4.8196916E-2,-3.42116E-1,-8.15272E-2,3.1E1,1.5293413E-1,2.4E1,5.15E-1,2.69E-1,9E1,9.5E1,2.6E1,3.019908E-1,4.54E1,5.9E1,8E0,3E0,3.41E1,4.8E1,1.551477E-1,-3.5276902E-1,-7.41297E-2,-2.8526065E-1,3.9258458E-2,-1.22187145E-1,2.1647067E-1,1.00690454E-1,-2.0706488E-1,1.1920149E-1,4.0474254E-1,7.83246E-2,3.8669154E-1,-1.5002556E-1,2.652918E-1,4.744929E-1,1.7066917E-1],"split_indices":[1,5,7,5,1,4,0,0,7,4,7,6,0,0,0,3,0,2,6,6,2,1,7,0,5,7,0,0,5,7,0,0,0,0,0,0,0,0,0,0,0,0,0,0,0,0,0],"split_type":[0,0,0,0,0,0,0,0,0,0,0,0,0,0,0,0,0,0,0,0,0,0,0,0,0,0,0,0,0,0,0,0,0,0,0,0,0,0,0,0,0,0,0,0,0,0,0],"sum_hessian":[1.5836789E2,1.2945209E2,2.8915808E1,2.537072E1,1.0408137E2,2.6845167E1,2.0706406E0,1.9401256E0,2.3430595E1,2.5008093E1,7.907327E1,2.5658646E1,1.1865218E0,2.230422E1,1.1263752E0,2.3790049E1,1.2180457E0,3.7635662E1,4.143761E1,1.0585272E1,1.5073374E1,1.5687145E1,8.102902E0,1.9409931E0,3.5694668E1,2.5198761E1,1.6238848E1,7.24154E0,3.3437316E0,1.3206564E1,1.8668098E0,1.2925321E1,2.761825E0,2.53252E0,5.5703826E0,3.400569E1,1.6889775E0,2.3106318E1,2.0924435E0,1.0017041E1,6.2218075E0,1.6501327E0,5.5914073E0,2.1626914E0,1.1810403E0,1.0839588E1,2.366976E0],"tree_param":{"num_deleted":"0","num_feature":"8","num_nodes":"47","size_leaf_vector":"1"}},{"base_weights":[-2.078968E-2,-4.2352155E-1,4.2215058E-1,-9.934369E-1,-2.3772468E-1,2.1771662E-1,9.6604776E-1,-3.1818974E-1,-4.637235E-1,-5.4336005E-1,1.1348998E-1,-4.180261E-1,3.8768274E-1,1.0612199E0,-4.4859283E-2,7.675675E-2,-2.4393462E-1,-6.200559E-1,2.3675887E-1,-4.119169E-1,2.8127807E-1,1.6200532E-1,-5.91192E-1,-8.134316E-2,5.7775426E-1,3.9952672E-1,1.1337025E0,-8.1706893E-1,-2.1670489E-1,-6.3839465E-1,1.3619675E-1,8.590142E-1,8.95782E-2,-8.29742E-1,1.2147319E-1,1.6257092E-1,-7.400984E-1,1.0203962E0,3.5246083E-1,2.0447256E-1,-2.1098867E-2,1.178146E0,8.194852E-2,-3.6955856E-2,-2.8915104E-1,-3.0252877E-1,1.0039581E-1,-2.937192E-1,2.1687904E-2,-1.3152297E-1,3.9196673E-1,-1.6128318E-1,1.0346531E-1,-3.0626482E-1,-7.823362E-2,-1.0512007E-1,2.9500473E-1,-5.721121E-2,-2.6415083E-1,3.7832597E-1,6.949717E-2,2.942709E-2,2.9099023E-1,3.7484255E-1,1.383272E-1],"categories":[],"categories_nodes":[],"categories_segments":[],"categories_sizes":[],"default_left":[0,0,0,0,0,0,0,0,0,0,0,0,0,0,0,0,0,0,0,0,0,0,0,0,0,0,0,0,0,0,0,0,0,0,0,0,0,0,0,0,0,0,0,0,0,0,0,0,0,0,0,0,0,0,0,0,0,0,0,0,0,0,0,0,0],"id":3,"left_children":[1,3,5,7,9,11,13,-1,15,17,19,21,23,25,-1,-1,-1,27,-1,29,31,-1,33,35,37,39,41,43,45,47,-1,49,51,53,-1,55,57,59,61,-1,-1,63,-1,-1,-1,-1,-1,-1,-1,-1,-1,-1,-1,-1,-1,-1,-1,-1,-1,-1,-1,-1,-1,-1,-1],"loss_changes":[2.6710802E1,8.065685E0,7.7211275E0,1.8306541E-1,6.5495977E0,5.9036365E0,2.1967564E0,0E0,1.1914173E0,3.8098936E0,2.6680617E0,2.2586794E0,3.8309503E0,4.012699E-1,0E0,0E0,0E0,2.308774E0,0E0,1.7436297E0,2.4191036E0,0E0,2.802023E0,2.227968E0,2.664833E0,4.8559684E-1,2.712822E-1,1.9848328E0,5.412634E0,1.5941117E0,0E0,3.7655783E0,3.0738666E0,6.8001604E-1,0E0,4.720204E0,1.1938453E-1,1.5497122E0,3.3018322E0,0E0,0E0,1.6267395E-1,0E0,0E0,0E0,0E0,0E0,0E0,0E0,0E0,0E0,0E0,0E0,0E0,0E0,0E0,0E0,0E0,0E0,0E0,0E0,0E0,0E0,0E0,0E0],"parents":[2147483647,0,0,1,1,2,2,3,3,4,4,5,5,6,6,8,8,9,9,10,10,11,11,12,12,13,13,17,17,19,19,20,20,22,22,23,23,24,24,25,25,26,26,27,27,28,28,29,29,31,31,32,32,33,33,35,35,36,36,37,37,38,38,41,41],"right_children":[2,4,6,8,10,12,14,-1,16,18,20,22,24,26,-1,-1,-1,28,-1,30,32,-1,34,36,38,40,42,44,46,48,-1,50,52,54,-1,56,58,60,62,-1,-1,64,-1,-1,-1,-1,-1,-1,-1,-1,-1,-1,-1,-1,-1,-1,-1,-1,-1,-1,-1,-1,-1,-1,-1],"split_conditions":[1.24E2,2.7E1,1.66E2,7E0,3.1E1,2.5E1,9.4E1,-3.1818974E-1,3.4E1,4.54E1,9.5E1,5.5E1,3.01E1,2.67E1,-4.4859283E-2,7.675675E-2,-2.4393462E-1,5.01E-1,2.3675887E-1,7.73E-1,6.8E1,1.6200532E-1,4.08E1,5.5E1,3.31E1,2.52E1,9E0,1.3E1,3.26E1,3.1E1,1.3619675E-1,3E0,2.52E-1,5.26E-1,1.2147319E-1,4.1E1,2.39E1,2.9E1,4.18E1,2.0447256E-1,-2.1098867E-2,1.096E0,8.194852E-2,-3.6955856E-2,-2.8915104E-1,-3.0252877E-1,1.0039581E-1,-2.937192E-1,2.1687904E-2,-1.3152297E-1,3.9196673E-1,-1.6128318E-1,1.0346531E-1,-3.0626482E-1,-7.823362E-2,-1.0512007E-1,2.9500473E-1,-5.721121E-2,-2.6415083E-1,3.7832597E-1,6.949717E-2,2.942709E-2,2.9099023E-1,3.7484255E-1,1.383272E-1],"split_indices":[1,5,1,0,7,7,2,0,7,5,1,2,5,5,0,0,0,6,0,6,2,0,5,7,5,5,0,3,5,3,0,0,6,6,0,7,5,3,5,0,0,6,0,0,0,0,0,0,0,0,0,0,0,0,0,0,0,0,0,0,0,0,0,0,0],"split_type":[0,0,0,0,0,0,0,0,0,0,0,0,0,0,0,0,0,0,0,0,0,0,0,0,0,0,0,0,0,0,0,0,0,0,0,0,0,0,0,0,0,0,0,0,0,0,0,0,0,0,0,0,0,0,0,0,0,0,0,0,0,0,0,0,0],"sum_hessian":[1.4773358E2,7.7401825E1,7.033175E1,1.7961039E1,5.944079E1,5.2135815E1,1.8195932E1,1.5049672E1,2.9113667E0,3.1490187E1,2.79506E1,1.0690291E1,4.1445526E1,1.6810522E1,1.3854108E0,1.0390774E0,1.8722893E0,3.028198E1,1.2082059E0,6.4132733E0,2.1537327E1,1.3121722E0,9.3781185E0,1.2117088E1,2.9328436E1,2.3025553E0,1.4507967E1,1.9655655E1,1.0626326E1,5.2919164E0,1.1213571E0,4.498605E0,1.7038721E1,7.7008944E0,1.6772244E0,9.392565E0,2.7245238E0,8.70204E0,2.0626396E1,1.1572626E0,1.1452928E0,1.3444535E1,1.0634319E0,3.752774E0,1.5902882E1,4.0219693E0,6.6043563E0,3.32192E0,1.9699966E0,1.1590167E0,3.339588E0,4.6094155E0,1.2429306E1,5.169827E0,2.5310674E0,6.1327786E0,3.2597857E0,1.034567E0,1.6899568E0,6.2085776E0,2.4934626E0,1.542939E1,5.1970057E0,1.155281E1,1.8917251E0],"tree_param":{"num_deleted":"0","num_feature":"8","num_nodes":"65","size_leaf_vector":"1"}},{"base_weights":[-1.8332664E-2,-3.524559E-1,3.3291954E-1,-9.0668947E-1,-1.9277091E-1,1.6697665E-1,8.0041987E-1,-9.798916E-1,-4.0082127E-1,-3.443999E-1,3.2901964E-1,-3.3262116E-1,2.9495528E-1,8.8782936E-1,-3.693035E-2,-3.1232882E-1,-1.0438551E-1,6.372686E-2,-2.2083531E-1,-4.894889E-1,1.2623508E-1,1.0891187E0,-1.265686E-1,3.719123E-1,-5.731868E-1,1.6110198E-1,8.431095E-1,9.540536E-1,8.143045E-2,-5.8048487E-1,1.7474294E-1,3.8618946E-1,-2.8903005E-1,2.8126791E-2,3.9997593E-1,-5.121794E-1,7.1994245E-1,-1.2648755E-1,3.224687E-1,-2.8969938E-1,1.6437627E-1,2.8760836E-1,-6.0085714E-1,3.5233828E-1,1.5389201E-1,5.496827E-1,3.500845E-1,-2.3111072E-1,-7.769492E-2,2.5175846E-1,-5.7774637E-2,-3.753475E-2,-2.615197E-1,2.5902689E-1,7.074318E-2,1.7439175E-1,-1.1829365E-1,1.3734835E-3,1.9433285E-1,-2.560668E-1,1.6793082E-2,-1.7550264E-1,2.0620489E-1,1.89152E-2,2.563701E-1],"categories":[],"categories_nodes":[],"categories_segments":[],"categories_sizes":[],"default_left":[0,0,0,0,0,0,0,0,0,0,0,0,0,0,0,0,0,0,0,0,0,0,0,0,0,0,0,0,0,0,0,0,0,0,0,0,0,0,0,0,0,0,0,0,0,0,0,0,0,0,0,0,0,0,0,0,0,0,0,0,0,0,0,0,0],"id":4,"left_children":[1,3,5,7,9,11,13,15,17,19,21,23,25,27,-1,-1,-1,-1,-1,29,31,33,35,37,39,41,43,45,-1,47,-1,49,-1,-1,-1,51,53,-1,-1,-1,55,57,59,-1,61,63,-1,-1,-1,-1,-1,-1,-1,-1,-1,-1,-1,-1,-1,-1,-1,-1,-1,-1,-1],"loss_changes":[1.6319609E1,6.129983E0,5.1274257E0,1.8728924E-1,4.589366E0,3.3790197E0,1.522151E0,1.4023685E-1,9.114667E-1,3.0884223E0,4.7261405E0,2.0663788E0,2.9003072E0,3.9867687E-1,0E0,0E0,0E0,0E0,0E0,3.6628923E0,3.5558212E0,1.1069145E0,3.3653762E0,2.3441157E0,2.632182E0,3.4978492E0,1.6200151E0,5.76704E-1,0E0,1.7490559E0,0E0,2.7280283E0,0E0,0E0,0E0,8.5001206E-1,2.4845004E-2,0E0,0E0,0E0,1.1195282E0,3.0816245E0,9.1674566E-1,0E0,1.8648341E0,9.506874E-1,0E0,0E0,0E0,0E0,0E0,0E0,0E0,0E0,0E0,0E0,0E0,0E0,0E0,0E0,0E0,0E0,0E0,0E0,0E0],"parents":[2147483647,0,0,1,1,2,2,3,3,4,4,5,5,6,6,7,7,8,8,9,9,10,10,11,11,12,12,13,13,19,19,20,20,21,21,22,22,23,23,24,24,25,25,26,26,27,27,29,29,31,31,35,35,36,36,40,40,41,41,42,42,44,44,45,45],"right_children":[2,4,6,8,10,12,14,16,18,20,22,24,26,28,-1,-1,-1,-1,-1,30,32,34,36,38,40,42,44,46,-1,48,-1,50,-1,-1,-1,52,54,-1,-1,-1,56,58,60,-1,62,64,-1,-1,-1,-1,-1,-1,-1,-1,-1,-1,-1,-1,-1,-1,-1,-1,-1,-1,-1],"split_conditions":[1.24E2,2.7E1,1.66E2,7E0,7E0,2.5E1,9.4E1,6.74E-1,3.4E1,3.5E1,3.9E1,7E0,7.19E-1,5.8E1,-3.693035E-2,-3.1232882E-1,-1.0438551E-1,6.372686E-2,-2.2083531E-1,4.54E1,9E1,1.01E2,6.05E-1,1.33E2,3.5E1,5.91E-1,3.9E1,7.2E1,8.143045E-2,5.01E-1,1.7474294E-1,2.8E1,-2.8903005E-1,2.8126791E-2,3.9997593E-1,2.99E-1,1.4E1,-1.2648755E-1,3.224687E-1,-2.8969938E-1,7E1,3.06E-1,5E1,3.5233828E-1,4.5E1,2.6E1,3.500845E-1,-2.3111072E-1,-7.769492E-2,2.5175846E-1,-5.7774637E-2,-3.753475E-2,-2.615197E-1,2.5902689E-1,7.074318E-2,1.7439175E-1,-1.1829365E-1,1.3734835E-3,1.9433285E-1,-2.560668E-1,1.6793082E-2,-1.7550264E-1,2.0620489E-1,1.89152E-2,2.563701E-1],"split_indices":[1,5,1,0,0,7,2,6,7,7,7,3,6,7,0,0,0,0,0,5,2,1,6,1,3,6,7,2,0,6,0,3,0,0,0,6,4,0,0,0,2,6,7,0,7,3,0,0,0,0,0,0,0,0,0,0,0,0,0,0,0,0,0,0,0],"split_type":[0,0,0,0,0,0,0,0,0,0,0,0,0,0,0,0,0,0,0,0,0,0,0,0,0,0,0,0,0,0,0,0,0,0,0,0,0,0,0,0,0,0,0,0,0,0,0,0,0,0,0,0,0,0,0,0,0,0,0,0,0,0,0,0,0],"sum_hessian":[1.3705435E2,7.023805E1,6.681629E1,1.4664081E1,5.5573975E1,5.0314083E1,1.6502209E1,1.1991754E1,2.6723273E0,4.3324203E1,1.2249769E1,9.934225E0,4.037986E1,1.51106615E1,1.3915484E0,1.0342596E1,1.6491569E0,1.0741717E0,1.5981556E0,3.3084682E1,1.0239523E1,4.0695662E0,8.1802025E0,2.3896823E0,7.544543E0,3.3494713E1,6.885146E0,1.3150049E1,1.9606117E0,3.091858E1,2.1661012E0,8.788503E0,1.4510199E0,1.074154E0,2.9954123E0,5.8914337E0,2.2887692E0,1.3105497E0,1.0791326E0,4.7223735E0,2.8221693E0,2.9259384E1,4.2353287E0,4.1742597E0,2.7108862E0,5.7708597E0,7.3791895E0,1.8560368E1,1.2358212E1,4.6774764E0,4.1110263E0,3.4863296E0,2.4051042E0,1.1611866E0,1.1275826E0,1.592935E0,1.2292343E0,1.695129E1,1.2308094E1,2.842323E0,1.3930058E0,1.0960683E0,1.614818E0,2.687727E0,3.083133E0],"tree_param":{"num_deleted":"0","num_feature":"8","num_nodes":"65","size_leaf_vector":"1"}}]},"name":"gbtree"},"learner_model_param":{"base_score":"3.5339102E-1","boost_from_average":"1","num_class":"0","num_feature":"8","num_target":"1"},"objective":{"name":"binary:logistic","reg_loss_param":{"scale_pos_weight":"1"}}},"version":[2,0,3]}